10 300
name -0.043772835 0.063478 0.059363816 -0.104964405 0.001764328 0.08882762 0.0026345137 0.036706913 -0.07286873 -0.11503654 0.07879484 -0.13038749 0.10470291 0.11928961 -0.038627293 -0.12016481 -0.14121576 0.17349032 0.06442083 0.12577312 -0.02768438 0.19439381 0.1482031 -0.0004509206 0.23434916 0.08393533 -0.05063334 -0.06400918 0.067750774 -0.029826414 0.15373388 0.041711185 0.11484932 0.071070984 -0.078661494 -0.15607151 -0.12898496 -0.056360275 0.13868597 -0.06868407 -0.0024965315 -0.0747548 0.058419123 0.108273946 0.067654 0.027114153 0.04342687 -0.020695494 0.053220954 -0.08349509 0.18395753 0.046861447 0.16087224 -0.14117879 0.11145347 0.041056775 -0.08542128 0.12721121 0.17546421 0.022685565 0.1778567 -0.034403767 -0.08758446 -0.06095472 0.2379125 0.14222524 -0.021907268 -0.0567618 -0.14754578 -0.051093988 0.0920512 0.04901572 -0.001016039 0.060238436 -0.1975138 0.31201884 0.09329497 -0.054662477 0.09573647 0.0015741048 0.0419643 0.09788502 0.11466135 0.11645313 0.0673903 -0.02331485 0.14802547 0.11452534 -0.0126616 -0.17233695 0.0024414158 -0.19313847 0.009076012 0.09645579 0.020872794 -0.038751774 -0.05337847 -0.25239804 -0.04851062 -0.032044854 -0.14185749 -0.040083535 0.0750454 0.040530935 0.064522356 0.08161126 -0.18011402 0.11825029 0.13633898 0.053542428 0.043503467 -0.07651294 0.08088982 -0.07699686 -0.024472956 -0.10080784 -0.006692652 -0.14792368 0.082628146 -0.05533793 -0.029311733 0.11664366 -0.0098919235 -0.027284248 -0.18194503 -0.23381855 0.012600033 0.053187538 -0.12486427 -0.09633674 -0.007569307 0.047057915 0.13539185 0.12724341 0.0028359005 -0.13907906 -0.13047618 0.098252274 0.048000682 0.13922769 -0.0064984583 0.13024886 0.066189736 -0.12805845 0.14016256 -0.25424528 0.09449847 0.07698183 -0.08454622 0.014578051 0.004273311 -0.10590476 0.053763427 -0.030200232 -0.22966908 -0.11580135 0.07750423 0.06397419 0.00041320085 0.163827 -0.09169007 0.04409589 0.036011867 0.06936146 -0.12998016 -0.017864669 0.003793058 -0.023987751 0.049508702 -0.1186256 -0.140426 0.17244424 -0.108015105 -0.07519492 -0.07112288 -0.10532531 0.01783789 -0.0839129 -0.12829855 0.11331721 0.09320849 0.042659946 0.14389676 0.06286623 0.008877407 0.013465132 -0.10419129 0.13779789 -0.020683413 0.048300665 0.0072131916 -0.16002512 -0.17215161 -0.030960321 0.044174686 0.0819337 0.072337985 0.076186754 0.051431626 0.13574976 0.004139561 0.07234286 -0.01040964 0.045567725 0.10482055 0.14093482 -0.12984738 0.21561606 -0.06836129 -0.049254984 -0.007882024 -0.032069612 0.15958081 0.03571866 0.2080183 -0.055243142 -0.09381076 0.0331248 -0.033780586 0.11545256 0.16079216 -0.08303024 0.21083601 0.04117727 -0.027776018 -0.046504375 0.0019792214 -0.10700234 0.05586402 -0.24088158 -0.08036573 -0.014160325 0.11220411 0.07368615 0.17079659 0.030535437 -0.070344836 0.019283816 0.14982356 -0.19676094 0.09103798 0.027245875 -0.11896768 -0.18391538 -0.04661953 0.16123831 0.16534823 -0.060331192 0.06441802 -0.0982665 -0.02821006 -0.023835877 0.15830137 -0.12298942 -0.042005572 -0.093322635 -0.09498119 0.075260855 0.14504305 0.025934549 0.0956163 0.011603834 -0.030423217 0.09387111 0.08521834 -0.024299117 0.1280607 0.17921795 0.085226744 -0.025456132 -0.12447908 0.033612095 -0.08878445 0.15870327 0.094037116 0.014739381 0.008536278 -0.061257947 0.0785725 0.095029525 -0.017746203 0.0035326984 -0.02734027 0.040581003 0.12068484 -0.15819877 -0.057303857 0.14760579 -0.23645845 0.1440098 -0.05670306 0.09133846 0.14608082 -0.07400785 0.07811673 0.1933013 0.19325036 0.07504516 0.0063915453 0.08380019
company -0.0027537183 0.107040785 0.011443072 -0.14655073 -0.056645863 0.11462122 0.091484465 0.15663506 -0.15641963 -0.09931539 0.21322078 -0.07599649 0.07159911 0.12789445 -0.012008941 -0.2127954 -0.08723251 0.085238986 0.15247889 0.16423446 -0.10855519 0.1491529 0.20524381 -0.10838202 0.20532821 0.091619216 0.11956768 -0.046764527 0.013699106 -0.110686675 0.087570846 0.19503419 -0.046209775 -0.019342594 0.10099638 -0.065347396 -0.09640962 -0.14051627 0.04714503 -0.017709596 -0.06700834 -0.19780298 -0.05531026 0.087546095 0.1932523 -0.044649553 0.11134649 0.019419506 0.23337868 -0.2549175 0.1277122 -0.07982816 0.10951269 -0.24734232 0.19362064 -0.10968927 -0.12311353 0.072205134 0.18485135 0.14807989 0.13807629 -0.09585552 -0.11521698 -0.057851095 0.12907271 0.021146098 -0.031253647 -0.004575122 0.028240927 -0.1676255 0.06317854 -0.026618877 0.035601854 0.011694146 -0.37186846 0.2650513 0.0276557 -0.09188786 0.17322767 0.035871483 0.077154905 0.010762657 0.06673658 0.034531485 0.036995467 -0.10030338 0.112116314 0.06850694 -0.057705224 -0.13469885 0.041847844 -0.20525335 0.037978653 0.12605864 -0.0892485 -0.09486683 -0.036466632 -0.27343673 0.010234066 -0.019647297 -0.13996914 -0.022339746 0.1310543 0.16596393 0.058928434 0.048608646 -0.07624473 0.12184565 -0.010341188 -0.056977738 0.060483772 -0.09193338 0.052845605 -0.014253815 -0.08155816 -0.20534992 -0.035386886 -0.2001393 0.15759352 -0.036332153 -0.085747585 0.021551507 0.020696295 -0.015616498 -0.17562415 -0.25718564 0.06591724 0.018677095 -0.032901656 -0.117422536 -0.09984921 0.18130073 0.17726639 0.15620258 0.15431578 -0.01640338 -0.14348482 0.13953777 0.10277554 0.07714067 -0.073568754 0.12435235 0.052476708 -0.08469301 0.1440306 -0.08325198 0.11847752 0.23028107 0.07525627 -0.12788245 0.030506916 -0.030861046 0.14910129 -0.09524143 -0.1652005 -0.15773395 -0.07759743 0.07843499 -0.19278939 0.28352666 -0.18383643 0.08343253 -0.094226494 0.004279817 -0.107657045 -0.028443068 -0.02697142 0.033582997 -0.047376208 -0.043743514 -0.0728354 0.108121395 -0.08650477 0.030689074 0.031486694 -0.10043438 0.13251579 -0.15265033 -0.26048338 0.3231363 -0.030144546 0.0653844 0.11581142 0.02426106 0.090608835 -0.12940691 -0.20102401 0.21091591 -0.012440122 0.09652664 -0.029025752 -0.087248735 -0.20179206 -0.09551904 0.10375071 0.19691554 0.14838481 -0.038957637 0.09905116 0.045058124 0.010863727 0.2014553 0.07872551 -0.109932676 0.080793396 0.27772257 -0.058790166 0.13780856 -0.10361793 -0.02733648 -0.004501723 0.039157525 0.13150492 0.05478227 0.28368035 0.0008320737 -0.31901327 -0.0053045275 0.012439095 0.12418087 0.19432451 0.079282485 0.22753718 0.013166556 -0.075357296 0.010120869 0.0069990708 0.026335314 0.122475676 -0.2707808 0.046964332 -0.015352685 0.20182893 0.11837866 0.16874616 -0.023347218 0.014250434 0.047736555 0.19747996 -0.23560654 0.08077165 0.012147024 -0.040689215 -0.0599528 -0.018265087 0.09911199 0.19996785 -0.044091586 0.05858616 -0.08316628 0.0066709616 0.030251274 0.075647265 -0.17109221 0.002233194 -0.08060726 -0.10693809 0.10869996 0.22943114 0.07291611 0.19110008 -0.06390551 0.10612903 -0.14208785 -0.012766185 -0.08770154 0.118096076 0.16380157 -0.0025666312 0.014958225 0.029470127 -0.061124828 -0.17960708 0.0194777 0.031468466 -0.025393931 -0.0012232325 0.122476384 0.09760208 0.06959159 0.00024017302 -0.1321482 -0.17693283 -0.01377606 0.15274711 -0.1572073 -0.13955425 0.20354916 -0.12173623 0.21909373 0.10085137 0.20611282 0.16873844 -0.0044744997 0.0012280477 0.18348648 0.17694665 0.12414767 0.15837066 0.025874605
game -0.048817363 0.052424304 0.1714172 -0.06792295 -0.017475357 0.12622094 0.07034028 0.23679307 0.023420218 -0.036588367 0.20225675 -0.0027413603 0.06743868 0.18828769 -0.06579807 -0.15495647 0.0182526 0.16905273 -0.015798667 0.073131375 -0.043176927 0.13384448 0.2154621 -0.10530229 0.15674134 0.09566152 0.07200596 -0.09192865 0.1317184 -0.09287071 0.19307749 0.20398562 0.07502063 -0.0626407 0.03389241 -0.18151574 0.03667054 -0.06735272 0.07021941 -0.09472825 -0.112498336 -0.045933813 0.069757804 0.23914582 0.07678963 0.12437479 0.109170415 0.050792247 0.01656073 -0.07466772 0.034350343 0.119667985 0.14667228 -0.029407188 0.046694923 0.11899831 0.0043930886 0.22532502 0.16225138 0.013718131 0.19973153 0.055726476 -0.052682247 0.0012966334 0.12061452 0.111298054 -0.06684064 -0.016296016 -0.11509708 0.052797683 0.11585173 0.089400984 0.066824615 0.17931522 -0.20809698 0.3107768 0.058992088 -0.10660572 0.058100566 -0.06703638 0.17694171 0.1085226 0.06385035 0.038854722 -0.043613203 -0.1177551 0.14451393 0.10086475 0.06381022 -0.18681248 0.02517865 -0.10746061 -0.06969959 0.06616756 0.0017785303 -0.118361704 -0.13619518 -0.23561698 -0.11020577 -0.0043433034 -0.2391987 -0.0073933783 0.08998702 0.13380648 0.078790836 -0.052058842 0.024254149 0.12377431 0.09596089 -0.017440168 0.1546653 -0.095064424 0.045142338 -0.09024012 0.03467534 -0.045714345 0.058603782 -0.16979973 0.13831234 -0.16346991 -0.09114722 0.0008727091 -0.09064336 0.113763325 -0.07579776 -0.20364618 0.090734795 0.05382144 -0.15053628 -0.21478637 0.045668032 -0.022951996 0.19569035 0.111037605 0.120059684 -0.06013721 -0.066918716 -0.007946236 0.0977932 -0.02796505 -0.09062503 0.05937995 0.04933458 -0.13857526 0.18664593 -0.10388516 0.09818929 0.031020772 -0.041250113 -0.08420822 -0.004455074 -0.18471019 0.016475216 -0.06311629 -0.11414291 -0.113384984 0.04463623 0.17291291 -0.15072747 0.15389788 -0.016344078 0.24049659 0.059813738 0.046051104 0.011686487 -0.08536607 0.16090833 0.07187238 0.086647205 -0.15800408 -0.074485764 -0.008494084 -0.076532565 0.031257946 -0.06599861 -0.05351583 0.041119955 -0.101344615 -0.20701665 0.1051628 -0.0054404587 0.028679693 0.051583756 0.008499134 -0.004052166 -0.05948517 -0.1468168 0.2161195 -0.04862232 -0.0022733628 0.043609194 -0.0969813 -0.20175147 -0.09137727 0.15605944 0.002420023 0.08117797 -0.006473066 0.09011609 0.09381424 -0.021305233 0.23542702 0.2041799 -0.13432445 0.17768142 0.1787213 0.011301647 0.13698244 -0.057804845 0.08346477 -0.055624153 0.020208888 0.03677039 0.08212631 0.21584032 0.014601114 -0.13180716 0.07560343 -0.043830097 0.047282916 0.20108642 -0.040148243 0.24693142 0.013426444 0.013734557 0.06289666 -0.09612001 0.037518136 0.107258424 -0.13130638 -0.049868066 -0.10481424 0.018405875 0.11064749 0.18190984 -0.03189892 -0.038577538 -0.06867684 0.055737842 -0.25273165 0.13957313 0.045164466 -0.12761413 -0.07031048 0.04339835 0.14104575 0.25029877 -0.06386009 0.2027621 0.018140914 -0.052024662 0.109926775 0.20268108 -0.19324206 0.03652094 -0.053972047 -0.013019134 0.2117324 0.22972704 0.07885279 0.118577406 0.007823365 0.091380246 -0.010376196 0.037282858 0.003376774 0.09058352 0.13338342 0.12560993 0.009650319 -0.20482676 -0.07111702 -0.20305832 0.152735 -0.02585059 -0.05216486 0.113369204 0.057069678 0.051450256 0.068790555 0.0444085 -0.06998631 -0.021441974 -0.1379558 0.100501515 -0.18375598 -0.013618617 0.13127415 -0.10906413 0.10512594 0.007270553 0.17319684 0.20898391 -0.12257382 0.17225641 0.22601771 0.16150646 -0.00014610395 -0.05549584 -0.11294037
organization -0.2533489 0.12255995 0.32188845 -0.124248914 0.07055679 0.24814156 0.1385187 0.16598164 -0.07471929 -0.006963255 0.16960013 -0.011642844 0.11119808 0.0041060774 0.050481614 -0.20728101 -0.18615709 0.052379124 0.17101935 0.14229508 -0.16500007 0.06933932 0.16328654 -0.20529027 0.35074595 0.18643463 0.10382599 -0.07057095 0.12409282 0.055312697 0.0767516 0.20368914 0.2808868 0.018542396 -0.10927356 -0.14271292 -0.009488372 0.02607298 0.009725302 -0.07851702 -0.046782658 -0.049295034 -0.058469016 0.20165631 0.032307684 0.19438611 0.12234634 0.12186458 -0.017481813 -0.0802871 0.20197672 0.18414178 0.058649458 -0.10252176 0.12425093 0.21382701 -0.054569818 0.1663968 0.19395082 0.15881702 0.23187064 0.030504545 -0.14287615 0.021098046 0.2608127 -0.016551558 0.009991574 -0.223719 -0.03320273 0.017531883 0.13968506 -0.018509893 -0.0733482 0.29438904 -0.11444604 0.36165604 0.06939946 -0.08571228 0.15776189 0.056460183 -0.01749647 0.288259 0.0067240847 0.086571485 0.1329657 0.08053546 0.1202862 0.2304517 0.02799386 0.034234144 -0.1720781 -0.32354528 -0.05618363 -0.016831389 0.07476984 -0.12094696 -0.1473658 -0.07090813 -0.00318002 0.016742796 -0.34504378 0.071564175 -0.051735803 0.16673648 0.08824765 -0.057357382 -0.22585481 0.094802365 0.12964511 0.17252608 0.137036 -0.246141 0.058840968 -0.0064132377 0.14128114 -0.15858865 -0.056880098 -0.1654765 0.06600171 -0.0064838617 0.08350977 0.08459936 0.0050573824 -0.19647986 -0.26206788 -0.2518122 0.15315364 0.14137778 -0.121668935 0.04614942 -0.007763196 0.13412325 0.24556887 0.398244 0.08393973 -0.18690965 -0.26437342 0.08857516 -0.011077534 0.1951864 0.07799817 0.15084918 0.13512939 -0.14825636 0.26065004 -0.1283118 0.09328358 0.12907864 0.005672427 0.13344677 -0.07227122 -0.1511134 0.0876496 -0.12399105 -0.251486 -0.18816236 -0.11266651 0.2075061 -0.061146203 0.31258044 -0.054616053 0.027425833 0.049369663 0.15821116 -0.12156956 -0.014541456 0.05090818 -0.03911174 0.109463654 -0.13439997 -0.19386396 0.13370389 0.0477446 -0.03845811 -0.14748529 -0.2581489 0.023133665 0.06647396 -0.18684912 0.27302274 0.042962324 -0.050136063 0.03899389 -0.08912836 -0.027412314 -0.25027442 -0.18440437 0.13818558 0.031400554 0.21600017 -0.018260362 -0.23886433 -0.37876543 -0.14231746 -0.21183099 0.1248111 0.15839314 -0.02043736 0.15228668 0.23664428 0.06020794 -0.024854248 -0.058462054 -0.06894664 0.027044715 0.1501709 -0.09666446 0.32883206 -0.23016004 -0.12294723 0.06986833 -0.06217039 0.2563312 0.068547465 0.11951068 -0.1459469 -0.089588314 0.05984206 -0.07698909 0.1451752 0.30261368 -0.029717384 0.38707173 0.004037415 -0.23723865 -0.07218756 -0.2219035 0.050731763 0.10476769 -0.27240103 0.012793723 0.14278471 0.14498816 0.08492902 0.19995035 -0.20966178 -0.123802215 0.03874966 0.16703333 -0.3877257 0.018834287 -0.03477058 -0.13268048 -0.29920945 -0.06779029 0.053177506 0.42806923 0.017670829 0.21884322 -0.01779054 -0.07158049 0.024686322 0.11664858 -0.17025308 0.034662597 0.007872173 -0.09961523 0.098501064 0.13775302 0.08719797 0.06789839 -0.20174819 -0.1198173 0.111245915 0.19079827 -0.06222461 0.2919259 0.18459137 0.19796498 -0.058749795 -0.10651133 0.008287308 -0.055758942 0.043559678 0.106108025 -0.027981654 -0.03355522 -0.016105965 0.17486075 0.08644808 0.03298868 -0.06890056 0.11929451 0.09160062 0.094261214 -0.14689097 -0.24016398 0.419887 -0.27285558 0.30375847 -0.031194946 0.009533584 0.10852622 -0.028614782 0.30538058 0.2966662 0.12788527 0.12562974 0.16299225 0.21257542
movie -0.07363017 -0.013830076 0.11761224 -0.053844098 -0.024856322 0.070467375 0.047885474 0.10634414 -0.044231635 -0.094467625 0.13518058 -0.080117226 0.04640191 0.1733508 -0.015344937 -0.08479938 -0.0062632696 0.0459313 0.029035755 0.09292697 -0.05806619 0.13277142 0.199318 0.054117493 0.058845315 0.012963997 -0.05109298 -0.07445662 0.11073384 -0.00235503 0.12037229 0.1301224 -0.019423343 0.03388367 0.02094754 -0.18392287 -0.036297448 -0.031952716 0.103136525 -0.13860422 -0.046315383 -0.019350475 0.1368958 0.1590788 0.05266908 0.114053965 0.066018865 0.04551359 0.028418342 -0.03994141 0.05895862 0.026958501 0.15895282 -0.06808207 0.06628784 0.10341698 -0.046077292 0.102287434 0.11650547 0.017754763 0.13520242 0.036642358 -0.027958063 0.012742598 0.11163452 0.03462273 -0.05811562 -0.0254771 -0.17311886 -0.040129997 0.061640017 0.07929915 0.020335367 0.09904881 -0.19381426 0.2396937 0.029251248 0.014557373 0.13008556 0.028636288 0.050175846 0.021120174 0.08234038 0.046664346 -0.08823619 -0.0822918 0.1902438 0.053811587 0.105264075 -0.20538925 0.09974408 -0.057793945 -0.033437803 0.1260161 0.014010649 -0.09502693 -0.040451527 -0.23049031 -0.11314347 0.0479222 -0.12873107 0.034939766 0.061142113 0.044153854 0.058175102 -0.0012059867 -0.05359543 0.14208138 0.09028926 0.0025912414 0.11559739 -0.043570805 0.067837805 -0.07097474 0.014136183 -0.08254283 -0.071352795 -0.14547722 0.13528514 -0.10962257 -0.08126228 0.020989 -0.0005173776 0.055184897 -0.13155013 -0.11813859 0.086304866 0.011924582 -0.025585148 -0.17897381 -0.025827693 0.005981538 0.18511824 0.08693828 0.10689559 -0.06133677 -0.05398789 0.04311344 0.1236876 0.08195208 -0.12276137 0.14336406 0.097064376 -0.11249505 0.19347653 -0.11920407 0.12542324 0.026489452 -0.044762183 -0.021591693 -0.0073585114 -0.20855509 -0.01820531 -0.029865013 -0.121454224 -0.042306203 0.07097438 0.14178793 -0.08188887 0.1075301 -0.028803907 0.056722913 -0.020366814 0.057840034 -0.107653156 -0.09548274 0.12127423 6.0516948e-05 0.10188191 -0.08127055 -0.10855742 0.09251442 -0.07834383 -0.00093745196 -0.06419912 -0.09339152 0.047086198 -0.04824882 -0.1993767 0.05653212 0.03367269 0.055946283 0.08262443 0.02427947 -0.038727164 0.017080832 -0.12591614 0.14054585 -0.006950164 0.0001958078 -0.0030610966 -0.09523763 -0.18425278 -0.05002966 0.13368076 -0.0026343705 0.062180534 0.051767346 0.0466152 0.13221678 -0.075306535 0.16855642 0.1474205 -0.03085063 0.15641557 0.14357923 -0.022730574 0.1329858 -0.09514177 0.13783309 -0.02482782 0.04306696 0.101521805 0.0052080317 0.194505 0.030997748 -0.116225205 0.0051758285 -0.026626278 0.070540294 0.12989211 -0.09610204 0.117071524 -0.041942827 -0.026944667 -0.04891719 -0.056930106 -0.13157746 0.012337972 -0.12669466 -0.108006485 -0.046018716 0.036764 0.073652074 0.11234388 0.02625075 -0.12282417 -0.04001866 0.024410674 -0.10371896 0.13772133 0.0332024 -0.13963936 -0.11806421 -0.06724764 0.15612753 0.18527201 -0.03896305 0.093712 -0.0131838815 -0.04401937 0.11173743 0.24244891 -0.1331085 -0.0071142022 -0.06932433 -0.05952414 0.20569529 0.091631025 0.050433572 0.1831509 0.0290799 0.06728542 -0.0039105057 0.0024365592 -0.026865184 0.09659305 0.16133854 0.15010159 -0.022025814 -0.18339816 -0.054315086 -0.1735549 0.20152918 -0.04979902 -0.023461636 0.11334471 0.04520683 0.054589234 0.016862562 0.070669785 -0.031200577 -0.102938704 -0.08063134 0.073582605 -0.19643958 0.014584327 0.04269964 -0.13975443 0.06262501 -0.034446213 0.17304736 0.24551009 -0.15973237 0.10248816 0.16954452 0.18477775 0.088953845 -0.040916968 -0.1316854
address -0.046940375 0.07730844 0.09865463 -0.15603721 -0.038689245 0.08815355 0.14116456 0.120943 -0.09521517 -0.09155505 -0.024863178 -0.06514359 0.10096743 0.11863525 -0.080972895 -0.111153156 -0.11093519 0.14419657 0.11057217 0.07443443 -0.11427877 0.1384316 0.17423102 0.04134378 0.20514736 0.14277267 0.07102276 -0.12312531 0.12673074 -0.059999652 0.033698548 0.15779907 -0.05143796 0.050216638 -0.046960246 -0.13545473 -0.09237241 -0.074853525 0.07150185 -0.120432116 0.037201997 -0.10401117 0.0026827045 0.06235655 0.0006751581 -0.011176388 -0.00974103 0.0073997015 0.1346197 -0.092500605 0.16089337 0.022384482 0.10724523 -0.18536998 0.1553982 -0.05231402 0.023320382 0.0401896 0.2310208 0.118110515 0.2304055 -0.0033255129 -0.025353836 0.0414351 0.02739307 0.064536855 -0.06559586 -0.08917184 -0.054884456 -0.04819784 0.043541666 0.13414524 0.06912728 0.11074997 -0.22974382 0.29187784 0.07312288 -0.023246251 0.024513 -0.02364481 0.019391974 0.03324651 0.13885185 0.018766966 0.061840277 -0.019814508 0.20489691 0.093312286 -0.014762704 -0.19419831 0.08391332 -0.13886468 0.05885311 0.112975895 -0.019805936 -0.088786826 -0.0860715 -0.25457212 -0.010956286 0.019676358 -0.1527948 0.01273137 0.030901838 0.06922557 0.02719407 0.11991743 -0.057987712 0.19814824 0.12582242 0.086786084 0.07471072 -0.033876617 0.028614221 0.080624536 0.034629323 -0.13809845 0.006669966 -0.1416011 0.14111635 -0.019924382 -0.10007248 -0.08213708 0.060233302 -0.04244484 -0.102576114 -0.2097792 0.068810195 0.08363537 -0.081530675 -0.15172519 -0.121403195 0.022940913 0.090179615 0.12277733 0.065735094 -0.084213436 -0.07820763 0.09291473 0.05779545 0.23559725 -0.04654252 0.13797879 0.12672515 -0.028404482 0.06053259 -0.07048319 0.12673701 0.04234443 0.05374421 0.07239986 -0.06788096 -0.059081465 0.006861797 -0.065009855 -0.23397243 -0.11725277 0.036300655 0.09120077 -0.015744261 0.26811427 -0.110800765 0.023408089 -0.00065404805 0.017848229 -0.13780206 -0.021811916 0.047292143 -0.021124152 -0.021497512 -0.16437347 -0.096868746 0.18167931 -0.01803927 -0.037486684 -0.12084036 -0.094713874 0.091111414 -0.08313749 -0.23524563 0.18011755 -0.008078321 0.06390587 0.16255887 0.00647116 0.014049211 -0.07531556 -0.20076592 0.089155935 -0.05186199 0.06101892 -0.05959421 -0.15548109 -0.14619309 -0.005850884 0.12985162 0.15766482 0.121714495 -0.007805303 0.11922452 0.2147696 0.014878024 0.09798768 0.07281684 0.047253937 0.017633665 0.1934141 -0.045142878 0.17878841 -0.08492769 -0.040308505 0.057488997 0.014290095 0.17868556 0.041940216 0.13864183 -0.00067837903 -0.1221816 -0.058652468 -0.08946025 0.11694684 0.1287591 -0.06757862 0.18201521 0.11703791 -0.15915072 0.0009522805 -0.057826813 -0.0021950323 0.116247885 -0.24741739 -0.04885624 -0.002349152 0.16217388 0.1340571 0.17158772 -0.013964549 -0.054305423 0.126122 0.104390875 -0.20782605 0.0824621 -0.036456075 -0.09281288 -0.112746276 -0.10760362 0.093007185 0.13495736 -0.0840954 0.05583688 0.027442329 -0.08913472 0.015745616 0.055082284 -0.06932812 -0.019720007 -0.089858316 -0.074394055 0.033221852 0.08463932 0.09209799 -0.008599835 -0.12722266 0.02777744 0.08071994 0.07449487 -0.050919864 0.16249256 0.15350047 0.14054537 0.024759464 -0.10552482 9.8546385e-05 -0.11622404 0.05582046 0.09430631 -0.0009479783 0.0048778797 0.15547416 0.1440999 0.006904042 -0.02127639 -0.14195943 -0.099426135 -0.010839164 0.19627763 -0.004882524 -0.11024306 0.13234755 -0.15974022 0.16524757 0.0054797945 0.067059934 0.188918 -0.13749641 -0.03163594 0.12483939 0.13237987 0.111888565 0.12096167 -0.0049501047
position -0.18246412 0.1410714 -0.032799777 -0.14081042 0.038541615 0.13152029 0.07261727 0.0770795 -0.09495665 -0.041464064 0.15025617 -0.03715735 0.063896246 0.034543294 -0.01624725 -0.2056466 0.08794993 0.16817398 0.09615658 0.028899027 -0.11447702 0.11612318 0.15501268 -0.123576954 0.09743573 0.08232579 -0.04809239 0.0036290567 -0.025462007 -0.16711809 0.12906681 -0.05290264 0.05333144 0.07708432 0.057868585 -0.16006882 -0.07213214 -0.12373728 0.06179864 -0.1513654 0.09218881 -0.103359886 0.17693241 0.19498515 0.08039788 0.005446497 -0.06442918 -0.019414993 0.16884644 -0.22603033 0.26631284 0.1584902 0.16861665 -0.17193258 0.06683571 -0.19739628 -0.05992924 0.123070925 0.2522483 0.1936795 0.07116599 -0.13663991 0.03322566 -0.035808835 0.21703571 0.15018803 -0.106568456 -0.05295096 -0.07900557 -0.059380755 0.062433306 0.03852007 -0.124794245 0.03272354 -0.33617255 0.30651906 0.07712846 -0.16081798 0.17524086 0.015192303 0.069415994 0.018914707 0.21869853 0.10394668 -0.028296653 0.008236105 0.03379985 0.17812982 0.011391168 -0.17945796 0.10987305 -0.27615643 0.15695451 0.13603514 -0.020384403 -0.0851837 -0.104135215 -0.19693892 0.14763981 -0.011333879 -0.12014054 0.12894744 0.10172906 0.27050248 -0.029728914 0.05210585 -0.075123586 0.10823609 0.11320442 0.0032201675 -0.10299914 -0.11187632 0.10642525 -0.0887776 0.014901529 -0.1157958 -0.019494496 -0.14280272 0.13040726 0.107615404 0.043031458 0.2616527 0.15154505 0.04262829 -0.036826294 -0.20890461 0.07277275 0.1369928 -0.06351021 -0.12609385 -0.0030486733 0.044179372 0.18148609 0.24704275 0.0802059 -0.15780586 -0.19857065 0.2629333 0.16834716 0.09936213 -0.0059860377 0.06916083 0.20959939 -0.17124231 0.22875382 -0.102639176 0.07438514 0.052894734 -0.065267734 0.07734795 0.09339542 -0.19012672 0.10816509 -0.058874715 -0.27497926 -0.010228575 0.05409499 0.022191234 -0.04120958 0.003955393 -0.099703126 0.052947644 -0.07005622 0.05871389 -0.07802318 -0.042544145 -0.0262615 0.067373745 -0.006213582 -0.09863607 -0.08742754 0.15182474 0.018206898 -0.048168875 0.004118043 0.03545969 0.00782099 0.020443883 -0.2750573 0.16162728 0.006141508 0.121467076 0.16977689 -0.012477308 0.043665744 -0.07494022 -0.14205253 0.008490053 0.06689154 0.14051193 -0.036711745 -0.22050098 -0.15347259 0.02846634 0.057103194 0.15501048 0.08983689 0.032139976 0.025866995 0.14648364 0.13616535 0.10404588 -0.011362232 0.09441479 0.12670584 0.1810049 -0.13158228 0.1646517 -0.1584015 -0.030191425 0.040674195 0.05611379 0.23039131 -0.057836507 0.257523 -0.0678768 -0.021078404 0.029912507 -0.22172065 0.11659242 0.1864311 -0.11160791 0.16828847 0.05843133 0.06961151 -0.0865031 -0.12348131 -0.21768375 0.1525651 -0.122264154 0.019095408 0.03989936 0.15521532 0.1351432 0.16045713 0.12572867 -0.01806123 0.15573159 0.32773104 -0.2711942 0.1924145 0.015151898 -0.0477535 -0.111741826 0.03982931 0.15720212 0.23996662 -0.014648505 0.11685521 -0.16586818 -0.09109382 0.061736222 -0.043318253 -0.21293467 -0.09375843 -0.09214413 -0.060595933 0.084434085 0.12713441 0.06080101 0.1265094 0.028910717 0.08450278 -0.04622075 0.058191683 0.006309524 0.06556712 0.24239811 0.09513281 -0.17979585 -0.15027145 -0.13213968 -0.07201359 -0.07982012 0.14346208 0.05383061 -0.04066663 -0.07321085 0.087423556 0.15042384 0.032014888 0.03902014 -0.011785419 0.13537642 0.14078322 -0.21385282 -0.16648838 0.14719856 -0.14907409 0.10803997 -0.03127103 0.12544121 0.2003725 0.032221887 0.0017767665 0.27064726 0.17263982 0.19791856 0.05607467 0.053995915
government -0.016536703 0.1066709 -0.034579743 -0.16891882 0.10556313 0.2742839 0.051105216 -0.0047935196 -0.09824908 -0.010703642 0.21198164 -0.041034766 0.043515977 0.048835505 -0.1620795 -0.15675977 -0.03771521 0.077074975 0.26157016 0.013377695 -0.18996313 0.09884181 0.15001127 -0.09705465 0.08880046 0.056937307 0.034176227 -0.09985897 0.072719485 -0.045341864 0.09733467 0.17215301 -0.16893147 -0.026749657 0.118033834 -0.09540376 -0.01723639 -0.17039022 -0.028183842 -0.026810741 -0.009194432 -0.25119412 0.10954185 0.18139583 0.068264075 0.028339112 -0.055898085 -0.0035516121 0.29781073 -0.21205124 0.19952816 0.07773511 0.034225877 -0.15844658 0.018074658 -0.025036363 -0.0858935 0.13434383 0.0025790667 0.1684599 0.13791814 -0.09586728 -0.08378034 0.01808429 0.07294169 -0.0031889256 -0.10959412 -0.0470468 -0.042653404 -0.19618884 0.07095505 0.029158555 0.05961494 0.08267987 -0.38113138 0.2912891 0.061666235 0.037986968 0.06265475 0.10291255 0.02336972 0.115402244 0.056646198 0.029301478 0.152881 -0.04683002 0.084056854 0.11226047 -0.021754494 -0.15534124 0.076980434 -0.20127262 0.041322302 0.20930415 -0.019158259 -0.0833847 -0.10562954 -0.16706385 0.104949854 0.097733326 -0.15166216 -0.07552778 0.036503278 0.15744917 0.10877315 -0.07048346 -0.052855987 0.08497173 0.10257196 0.0338307 -0.010915449 -0.059688278 0.0014154775 -0.0074721402 -0.072640434 -0.20636554 -0.021335198 -0.20601478 0.17099203 0.07385083 0.0038151685 -0.022706958 0.1202834 -0.083402805 -0.14124303 -0.20421028 0.020649083 0.08646297 -0.071220204 -0.051922485 -0.06230528 0.14374982 0.079695255 0.10736272 0.08494229 -0.08271061 -0.1597538 0.0872796 0.12833846 0.17892939 -0.066212736 0.17107393 0.12294269 -0.03821191 0.09427411 -0.05412503 0.08985952 0.15362822 -0.09670001 0.1382988 0.04626145 -0.004691778 0.016631374 -0.1265612 -0.14035507 -0.18281591 0.036462042 0.14438722 -0.12655419 0.21557902 -0.11313784 0.1798827 -0.020734629 0.034456927 -0.11592654 0.11203193 0.07797069 0.000112856374 0.11246559 -0.14318717 0.04709816 0.21169955 0.054753266 0.021127693 -0.025027137 -0.057847764 0.060350545 -0.20106907 -0.23006141 0.32105687 0.01023379 0.08217031 0.14473215 0.052329864 0.019504616 -0.037667528 -0.17680913 0.10513123 0.010542679 0.143907 0.0848469 -0.2671716 -0.22076222 -0.040100127 0.17096914 0.15694791 0.07378911 0.031245112 -0.017257962 0.12761779 0.14901167 0.1404779 -0.00018615066 0.10975877 0.063389346 0.1928071 0.016651658 0.21139884 -0.19527312 -0.10626899 -0.09014889 0.04931652 0.19051325 0.048487708 0.18631649 -0.060869344 -0.17615327 -0.02054795 -0.11331355 0.21972628 0.14390342 -0.09063894 0.18450107 0.13280159 -0.043708004 -0.082559705 -0.1250382 0.00019425814 0.13927378 -0.24535795 0.060069308 -0.012407453 0.20497356 0.19549786 0.0947719 0.075129986 0.1155011 0.07125076 0.34034213 -0.296146 0.17115061 -0.072693475 -0.05944685 -0.12616232 0.00895325 0.0409635 0.22403349 -0.05489186 0.18514906 0.010370754 -0.008614269 0.021522341 0.054149814 -0.1818548 -0.061084002 -0.14970458 -0.112156585 -0.011991609 0.16456774 0.12666996 0.16942762 -0.04404186 0.008547399 -0.102690905 0.12761615 -0.11727709 0.07847105 0.1892742 0.12355197 -0.09082474 -0.09578969 -0.022471074 -0.17594895 -0.07559063 0.060326204 -0.04366075 0.05520604 0.14032207 0.1444537 0.020891579 -0.07882788 0.030922621 -0.05464587 0.035296034 0.2340341 -0.1834935 -0.30762607 0.1471827 -0.25086042 0.18525115 -0.12010743 0.13471207 0.25342512 -0.094810635 0.03221166 0.26438907 0.1997674 0.14526807 0.1658085 0.026478492
scene -0.016751397 0.06558748 0.06348432 -0.16548292 -0.0068787383 0.021017998 0.09110751 0.1188025 -0.08698835 -0.12779094 0.009845578 -0.08471896 0.09938934 0.155083 -0.13320109 -0.115121804 -0.14493798 0.15385677 0.12693375 0.13387758 -0.12704869 0.10733003 0.1748928 0.023856709 0.15587783 0.10241649 0.020693962 -0.1815268 0.1458696 -0.044318896 0.11629012 0.1894709 -0.058918912 0.015614535 -0.098788105 -0.14688498 -0.093834735 -0.026524348 0.109922305 -0.14145006 0.099054724 -0.07208201 0.037022762 0.15290043 0.0446323 -0.019960279 0.07540879 0.021308012 0.0880128 -0.081348255 0.177445 0.023786576 0.17104149 -0.10952469 0.15015127 -0.031909026 0.094441935 0.07362319 0.17963865 -0.0040435684 0.193086 -0.0013799174 -0.060568202 0.0492386 0.08009468 0.09001336 -0.025078176 -0.023362758 -0.09960061 -0.08807036 0.045557775 0.106730476 0.05239353 0.11194079 -0.16890705 0.2929572 0.054040063 -0.023473531 -0.017878873 0.010896645 0.019487683 0.06664487 0.14169334 0.043311346 0.062330432 0.020937892 0.21036258 0.15116912 -0.0087172175 -0.22738607 0.08814267 -0.20337807 0.086319275 0.12965131 0.04457001 -0.087555446 -0.11924025 -0.2820235 -0.054867767 0.0013559695 -0.17690492 -0.05736806 -0.01076658 0.05244313 0.10100133 0.19497055 -0.058984913 0.18003748 0.1744157 0.04880255 0.036294945 -0.015481249 0.08570614 -0.038331743 -0.1024242 -0.15497057 -0.03283624 -0.12684813 0.14751397 -0.034402624 -0.07641586 -0.045674454 -0.048924413 -0.117335774 -0.0717466 -0.16618317 0.031078318 -0.0012416282 -0.12213117 -0.15563843 -0.097171046 -0.031272978 0.061112948 0.09250003 0.055751264 -0.09003272 -0.025569456 0.08887949 0.01532696 0.15614092 -0.054212708 0.16984546 0.072165854 -0.070996106 0.05936816 -0.098343246 0.13078761 0.062420905 0.0024361701 0.11086221 -0.014722626 -0.013071198 -0.060565703 -0.07459611 -0.12195976 -0.13277985 0.056773543 0.15704866 0.022965943 0.26536486 -0.044602808 0.044249114 -0.017322246 0.026761234 -0.08919295 -0.009555804 0.093827434 -0.09008228 -0.0002156578 -0.15834382 -0.121772625 0.14798014 -0.064882874 0.035000257 -0.12003551 -0.079837926 0.06170693 -0.032480266 -0.19630745 0.1355522 -0.023660524 0.05996109 0.032717697 0.0065084053 0.013810097 -0.05764548 -0.1780667 0.12223552 -0.020889066 0.052017387 -0.018624729 -0.16455607 -0.22672524 -0.018824723 0.16353448 0.20507073 0.05300629 0.11610888 0.18288852 0.2416999 -0.010487809 0.06434992 0.10640967 0.13573687 0.0065364065 0.2467327 -0.121651664 0.20190376 0.0008543577 0.02882122 0.030555928 0.009482329 0.14874318 0.037064686 0.15617168 0.0059195827 -0.118580185 -0.09978349 -0.05418868 0.16690499 0.069428384 -0.011735325 0.19949445 0.13570708 -0.14460745 -0.005618983 -0.033616856 -0.028534006 0.05091448 -0.23682846 -0.07038846 0.12022932 0.07195981 0.13074462 0.14310287 0.0030079389 -0.054494932 0.057899542 0.0945898 -0.20504068 0.12925929 -0.042175386 -0.1425528 -0.12760353 -0.112049185 0.15596062 0.08374025 -0.058009867 -0.02255917 0.0029175538 -0.056115314 -0.013595058 0.10507808 -0.062285323 0.07158174 -0.0660923 -0.03437932 0.006768961 0.07181549 0.081278354 0.02414911 -0.06345506 0.10272471 0.021876441 0.061620966 -0.075177975 0.19962169 0.10412247 0.123854965 0.035376456 -0.07458471 -0.00026009534 -0.18365532 0.05927572 0.098823935 -0.019207725 0.11790949 0.039421808 0.16179377 -0.045437507 0.037827086 -0.09035459 -0.12883988 -0.009164177 0.07669715 -0.076467566 -0.06924464 0.12654772 -0.18014261 0.14656964 -0.031476196 0.13963535 0.18319018 -0.1572921 0.049000137 0.17931119 0.15478577 0.08345915 0.06121267 0.048758693
book -0.092011206 0.0031925829 0.09170275 -0.06418949 -0.030097395 0.082463555 0.033110477 0.11171129 -0.055773262 -0.09593395 0.12731056 -0.073463224 0.048063412 0.1449251 -0.04009327 -0.13746744 -0.0019849574 0.035767954 0.0411348 0.10752201 -0.0597487 0.14457616 0.19930063 0.037355952 0.07433945 0.034280747 -0.046894964 -0.08957319 0.12529743 -0.01235362 0.12032463 0.13440804 -0.02530166 0.063769646 0.059278596 -0.16640128 -0.03963964 -0.029063122 0.079312705 -0.1418614 -0.06186316 -0.053646207 0.1048048 0.15506208 0.046869192 0.09895379 0.06495784 0.040405624 0.046917107 -0.05300583 0.055472866 0.053229667 0.18036442 -0.08087179 0.07969023 0.058719955 -0.0539415 0.09877272 0.12263365 0.03653095 0.15289448 0.048567116 0.0042138197 0.034974802 0.104828246 0.044387594 -0.07457984 -0.039367802 -0.156578 -0.06622232 0.03913172 0.098803006 0.012756888 0.08921851 -0.25124493 0.23459865 0.051633794 -0.013785063 0.15814362 0.011309307 0.031595804 0.0022063095 0.103884265 0.05172581 -0.06938406 -0.06094714 0.18103042 0.06756851 0.1036703 -0.20108302 0.13954234 -0.06231276 -0.0013527826 0.1621644 -0.021382539 -0.12665614 -0.04013177 -0.24037431 -0.07990376 0.078656055 -0.12907194 0.020000309 0.050543122 0.075779244 0.026058903 -0.014134603 -0.03421864 0.14962623 0.108130604 0.008525924 0.105641425 -0.051374324 0.068016335 -0.07462563 0.019875364 -0.08559746 -0.050401703 -0.13669643 0.13498375 -0.073212646 -0.09498642 0.030551411 0.015096558 0.06841297 -0.117775396 -0.11753583 0.08504494 -0.006282746 0.0047320756 -0.17526034 -0.012452585 0.026120696 0.17091505 0.09392836 0.119919695 -0.03754344 -0.080384 0.06543977 0.13505073 0.08677691 -0.122121505 0.112138234 0.11801954 -0.11849029 0.19311947 -0.10114328 0.12683807 0.049968243 -0.049503148 -0.000988513 0.019041767 -0.18206935 0.010217339 -0.057785913 -0.15404119 -0.03580313 0.051150966 0.13607728 -0.0678238 0.07873352 -0.054333255 0.041363023 -0.045547593 0.06254801 -0.100894086 -0.109538525 0.09775234 -0.012161477 0.064299025 -0.08461387 -0.09032062 0.1151206 -0.08469341 0.008174249 -0.048984744 -0.08681713 0.079785645 -0.065311685 -0.23479094 0.07668534 0.003661868 0.05461117 0.109911345 0.026344962 0.0021374517 0.01522884 -0.13283043 0.14401469 -0.019541191 0.022550225 0.014313014 -0.076433934 -0.18644904 -0.03355805 0.12578377 0.018938133 0.07374075 0.044955406 0.03656109 0.09740003 -0.048032008 0.15911295 0.1330987 -0.04005595 0.17400967 0.16780576 -0.057463598 0.10506887 -0.11881031 0.12218644 -0.026269587 0.034902275 0.105667695 0.00022460024 0.19188973 0.01837931 -0.095977195 -0.0021617068 -0.054020546 0.08721125 0.15632024 -0.09136263 0.13790879 -0.047848314 -0.050216403 -0.045168467 -0.039937958 -0.1447109 0.04572691 -0.13025168 -0.08051989 -0.03530789 0.06599803 0.10729414 0.11088921 0.037805244 -0.09902501 -0.02119587 0.041617375 -0.085978754 0.14782818 0.047814112 -0.11714987 -0.14081796 -0.07191442 0.13566299 0.19693747 -0.025064748 0.10842439 -0.017074635 -0.045429673 0.14176275 0.20341511 -0.13166471 0.018162323 -0.06969446 -0.0894668 0.16232245 0.06349864 0.037491124 0.18540978 0.033261783 0.088882595 -0.02198568 0.03112703 -0.03756662 0.10430748 0.17367293 0.17289655 0.023878751 -0.17483415 -0.03349112 -0.14971234 0.15464889 -0.048480988 0.026280046 0.11605126 0.04415923 0.046412144 0.017947812 0.071181364 -0.043815095 -0.09702907 -0.031721313 0.10297312 -0.1853506 0.019153284 0.05282151 -0.14870304 0.047006775 -0.009379749 0.19844353 0.21935958 -0.14241825 0.081088774 0.15648754 0.15072754 0.098304085 0.004477103 -0.13243279
